FANN_FLO_2.1
num_layers=3
learning_rate=0.300000
connection_rate=1.000000
network_type=0
learning_momentum=0.000000
training_algorithm=2
train_error_function=1
train_stop_function=0
cascade_output_change_fraction=0.010000
quickprop_decay=-0.000100
quickprop_mu=1.750000
rprop_increase_factor=1.200000
rprop_decrease_factor=0.500000
rprop_delta_min=0.000000
rprop_delta_max=50.000000
rprop_delta_zero=0.100000
cascade_output_stagnation_epochs=12
cascade_candidate_change_fraction=0.010000
cascade_candidate_stagnation_epochs=12
cascade_max_out_epochs=150
cascade_min_out_epochs=50
cascade_max_cand_epochs=150
cascade_min_cand_epochs=50
cascade_num_candidate_groups=2
bit_fail_limit=3.49999994039535522461e-01
cascade_candidate_limit=1.00000000000000000000e+03
cascade_weight_multiplier=4.00000005960464477539e-01
cascade_activation_functions_count=10
cascade_activation_functions=3 5 7 8 10 11 14 15 16 17 
cascade_activation_steepnesses_count=4
cascade_activation_steepnesses=2.50000000000000000000e-01 5.00000000000000000000e-01 7.50000000000000000000e-01 1.00000000000000000000e+00 
layer_sizes=3 201 2 
scale_included=0
neurons (num_inputs, activation_function, activation_steepness)=(0, 0, 0.00000000000000000000e+00) (0, 0, 0.00000000000000000000e+00) (0, 0, 0.00000000000000000000e+00) (3, 5, 5.00000000000000000000e-01) (3, 5, 5.00000000000000000000e-01) (3, 5, 5.00000000000000000000e-01) (3, 5, 5.00000000000000000000e-01) (3, 5, 5.00000000000000000000e-01) (3, 5, 5.00000000000000000000e-01) (3, 5, 5.00000000000000000000e-01) (3, 5, 5.00000000000000000000e-01) (3, 5, 5.00000000000000000000e-01) (3, 5, 5.00000000000000000000e-01) (3, 5, 5.00000000000000000000e-01) (3, 5, 5.00000000000000000000e-01) (3, 5, 5.00000000000000000000e-01) (3, 5, 5.00000000000000000000e-01) (3, 5, 5.00000000000000000000e-01) (3, 5, 5.00000000000000000000e-01) (3, 5, 5.00000000000000000000e-01) (3, 5, 5.00000000000000000000e-01) (3, 5, 5.00000000000000000000e-01) (3, 5, 5.00000000000000000000e-01) (3, 5, 5.00000000000000000000e-01) (3, 5, 5.00000000000000000000e-01) (3, 5, 5.00000000000000000000e-01) (3, 5, 5.00000000000000000000e-01) (3, 5, 5.00000000000000000000e-01) (3, 5, 5.00000000000000000000e-01) (3, 5, 5.00000000000000000000e-01) (3, 5, 5.00000000000000000000e-01) (3, 5, 5.00000000000000000000e-01) (3, 5, 5.00000000000000000000e-01) (3, 5, 5.00000000000000000000e-01) (3, 5, 5.00000000000000000000e-01) (3, 5, 5.00000000000000000000e-01) (3, 5, 5.00000000000000000000e-01) (3, 5, 5.00000000000000000000e-01) (3, 5, 5.00000000000000000000e-01) (3, 5, 5.00000000000000000000e-01) (3, 5, 5.00000000000000000000e-01) (3, 5, 5.00000000000000000000e-01) (3, 5, 5.00000000000000000000e-01) (3, 5, 5.00000000000000000000e-01) (3, 5, 5.00000000000000000000e-01) (3, 5, 5.00000000000000000000e-01) (3, 5, 5.00000000000000000000e-01) (3, 5, 5.00000000000000000000e-01) (3, 5, 5.00000000000000000000e-01) (3, 5, 5.00000000000000000000e-01) (3, 5, 5.00000000000000000000e-01) (3, 5, 5.00000000000000000000e-01) (3, 5, 5.00000000000000000000e-01) (3, 5, 5.00000000000000000000e-01) (3, 5, 5.00000000000000000000e-01) (3, 5, 5.00000000000000000000e-01) (3, 5, 5.00000000000000000000e-01) (3, 5, 5.00000000000000000000e-01) (3, 5, 5.00000000000000000000e-01) (3, 5, 5.00000000000000000000e-01) (3, 5, 5.00000000000000000000e-01) (3, 5, 5.00000000000000000000e-01) (3, 5, 5.00000000000000000000e-01) (3, 5, 5.00000000000000000000e-01) (3, 5, 5.00000000000000000000e-01) (3, 5, 5.00000000000000000000e-01) (3, 5, 5.00000000000000000000e-01) (3, 5, 5.00000000000000000000e-01) (3, 5, 5.00000000000000000000e-01) (3, 5, 5.00000000000000000000e-01) (3, 5, 5.00000000000000000000e-01) (3, 5, 5.00000000000000000000e-01) (3, 5, 5.00000000000000000000e-01) (3, 5, 5.00000000000000000000e-01) (3, 5, 5.00000000000000000000e-01) (3, 5, 5.00000000000000000000e-01) (3, 5, 5.00000000000000000000e-01) (3, 5, 5.00000000000000000000e-01) (3, 5, 5.00000000000000000000e-01) (3, 5, 5.00000000000000000000e-01) (3, 5, 5.00000000000000000000e-01) (3, 5, 5.00000000000000000000e-01) (3, 5, 5.00000000000000000000e-01) (3, 5, 5.00000000000000000000e-01) (3, 5, 5.00000000000000000000e-01) (3, 5, 5.00000000000000000000e-01) (3, 5, 5.00000000000000000000e-01) (3, 5, 5.00000000000000000000e-01) (3, 5, 5.00000000000000000000e-01) (3, 5, 5.00000000000000000000e-01) (3, 5, 5.00000000000000000000e-01) (3, 5, 5.00000000000000000000e-01) (3, 5, 5.00000000000000000000e-01) (3, 5, 5.00000000000000000000e-01) (3, 5, 5.00000000000000000000e-01) (3, 5, 5.00000000000000000000e-01) (3, 5, 5.00000000000000000000e-01) (3, 5, 5.00000000000000000000e-01) (3, 5, 5.00000000000000000000e-01) (3, 5, 5.00000000000000000000e-01) (3, 5, 5.00000000000000000000e-01) (3, 5, 5.00000000000000000000e-01) (3, 5, 5.00000000000000000000e-01) (3, 5, 5.00000000000000000000e-01) (3, 5, 5.00000000000000000000e-01) (3, 5, 5.00000000000000000000e-01) (3, 5, 5.00000000000000000000e-01) (3, 5, 5.00000000000000000000e-01) (3, 5, 5.00000000000000000000e-01) (3, 5, 5.00000000000000000000e-01) (3, 5, 5.00000000000000000000e-01) (3, 5, 5.00000000000000000000e-01) (3, 5, 5.00000000000000000000e-01) (3, 5, 5.00000000000000000000e-01) (3, 5, 5.00000000000000000000e-01) (3, 5, 5.00000000000000000000e-01) (3, 5, 5.00000000000000000000e-01) (3, 5, 5.00000000000000000000e-01) (3, 5, 5.00000000000000000000e-01) (3, 5, 5.00000000000000000000e-01) (3, 5, 5.00000000000000000000e-01) (3, 5, 5.00000000000000000000e-01) (3, 5, 5.00000000000000000000e-01) (3, 5, 5.00000000000000000000e-01) (3, 5, 5.00000000000000000000e-01) (3, 5, 5.00000000000000000000e-01) (3, 5, 5.00000000000000000000e-01) (3, 5, 5.00000000000000000000e-01) (3, 5, 5.00000000000000000000e-01) (3, 5, 5.00000000000000000000e-01) (3, 5, 5.00000000000000000000e-01) (3, 5, 5.00000000000000000000e-01) (3, 5, 5.00000000000000000000e-01) (3, 5, 5.00000000000000000000e-01) (3, 5, 5.00000000000000000000e-01) (3, 5, 5.00000000000000000000e-01) (3, 5, 5.00000000000000000000e-01) (3, 5, 5.00000000000000000000e-01) (3, 5, 5.00000000000000000000e-01) (3, 5, 5.00000000000000000000e-01) (3, 5, 5.00000000000000000000e-01) (3, 5, 5.00000000000000000000e-01) (3, 5, 5.00000000000000000000e-01) (3, 5, 5.00000000000000000000e-01) (3, 5, 5.00000000000000000000e-01) (3, 5, 5.00000000000000000000e-01) (3, 5, 5.00000000000000000000e-01) (3, 5, 5.00000000000000000000e-01) (3, 5, 5.00000000000000000000e-01) (3, 5, 5.00000000000000000000e-01) (3, 5, 5.00000000000000000000e-01) (3, 5, 5.00000000000000000000e-01) (3, 5, 5.00000000000000000000e-01) (3, 5, 5.00000000000000000000e-01) (3, 5, 5.00000000000000000000e-01) (3, 5, 5.00000000000000000000e-01) (3, 5, 5.00000000000000000000e-01) (3, 5, 5.00000000000000000000e-01) (3, 5, 5.00000000000000000000e-01) (3, 5, 5.00000000000000000000e-01) (3, 5, 5.00000000000000000000e-01) (3, 5, 5.00000000000000000000e-01) (3, 5, 5.00000000000000000000e-01) (3, 5, 5.00000000000000000000e-01) (3, 5, 5.00000000000000000000e-01) (3, 5, 5.00000000000000000000e-01) (3, 5, 5.00000000000000000000e-01) (3, 5, 5.00000000000000000000e-01) (3, 5, 5.00000000000000000000e-01) (3, 5, 5.00000000000000000000e-01) (3, 5, 5.00000000000000000000e-01) (3, 5, 5.00000000000000000000e-01) (3, 5, 5.00000000000000000000e-01) (3, 5, 5.00000000000000000000e-01) (3, 5, 5.00000000000000000000e-01) (3, 5, 5.00000000000000000000e-01) (3, 5, 5.00000000000000000000e-01) (3, 5, 5.00000000000000000000e-01) (3, 5, 5.00000000000000000000e-01) (3, 5, 5.00000000000000000000e-01) (3, 5, 5.00000000000000000000e-01) (3, 5, 5.00000000000000000000e-01) (3, 5, 5.00000000000000000000e-01) (3, 5, 5.00000000000000000000e-01) (3, 5, 5.00000000000000000000e-01) (3, 5, 5.00000000000000000000e-01) (3, 5, 5.00000000000000000000e-01) (3, 5, 5.00000000000000000000e-01) (3, 5, 5.00000000000000000000e-01) (3, 5, 5.00000000000000000000e-01) (3, 5, 5.00000000000000000000e-01) (3, 5, 5.00000000000000000000e-01) (3, 5, 5.00000000000000000000e-01) (3, 5, 5.00000000000000000000e-01) (3, 5, 5.00000000000000000000e-01) (3, 5, 5.00000000000000000000e-01) (3, 5, 5.00000000000000000000e-01) (3, 5, 5.00000000000000000000e-01) (3, 5, 5.00000000000000000000e-01) (3, 5, 5.00000000000000000000e-01) (3, 5, 5.00000000000000000000e-01) (3, 5, 5.00000000000000000000e-01) (3, 5, 5.00000000000000000000e-01) (0, 5, 0.00000000000000000000e+00) (201, 5, 5.00000000000000000000e-01) (0, 5, 0.00000000000000000000e+00) 
connections (connected_to_neuron, weight)=(0, -3.83968472480773925781e-01) (1, 9.37387228012084960938e-01) (2, -2.63717532157897949219e-01) (0, -9.58348631858825683594e-01) (1, 7.96620547771453857422e-01) (2, -9.33076322078704833984e-01) (0, 9.55588579177856445312e-01) (1, 7.99807965755462646484e-01) (2, 8.98334860801696777344e-01) (0, -9.49292480945587158203e-01) (1, 7.99985051155090332031e-01) (2, -8.92635643482208251953e-01) (0, 9.09200012683868408203e-01) (1, 8.03803026676177978516e-01) (2, 8.95740330219268798828e-01) (0, -3.62727671861648559570e-01) (1, 8.48622143268585205078e-01) (2, -2.80127704143524169922e-01) (0, -3.27805191278457641602e-01) (1, 8.10532629489898681641e-01) (2, -2.82491505146026611328e-01) (0, 2.91047133505344390869e-02) (1, 9.83866155147552490234e-01) (2, 4.76673617959022521973e-03) (0, 1.06162473559379577637e-01) (1, 9.74838674068450927734e-01) (2, 2.87256330251693725586e-01) (0, 1.05974957346916198730e-01) (1, 8.42661440372467041016e-01) (2, -1.71471051871776580811e-02) (0, -4.19241897761821746826e-02) (1, 8.80773007869720458984e-01) (2, 9.64806228876113891602e-03) (0, 8.62230420112609863281e-01) (1, 9.15416479110717773438e-01) (2, 9.59068596363067626953e-01) (0, 2.31234133243560791016e-01) (1, 8.78012955188751220703e-01) (2, 2.74972349405288696289e-01) (0, 1.36576905846595764160e-01) (1, 9.21712577342987060547e-01) (2, 2.81965315341949462891e-01) (0, 9.27845418453216552734e-01) (1, 8.37920486927032470703e-01) (2, 9.83688294887542724609e-01) (0, 2.40153446793556213379e-03) (1, 8.97272884845733642578e-01) (2, 1.11262537539005279541e-02) (0, -8.13438236713409423828e-01) (1, 9.91547703742980957031e-01) (2, -9.29125308990478515625e-01) (0, -8.73849749565124511719e-01) (1, 8.55852425098419189453e-01) (2, -9.38251256942749023438e-01) (0, 1.23909100890159606934e-01) (1, 8.59934866428375244141e-01) (2, 1.38745084404945373535e-03) (0, -8.48706662654876708984e-01) (1, 8.01109790802001953125e-01) (2, -9.06735301017761230469e-01) (0, 9.55330371856689453125e-01) (1, 9.11985635757446289062e-01) (2, 9.67029809951782226562e-01) (0, 8.95863622426986694336e-02) (1, 9.81223881244659423828e-01) (2, 6.12621046602725982666e-02) (0, -6.19371496140956878662e-02) (1, 9.10378038883209228516e-01) (2, 2.86829546093940734863e-02) (0, -3.14448252320289611816e-02) (1, 9.44874882698059082031e-01) (2, 1.50034576654434204102e-02) (0, -3.78439575433731079102e-01) (1, 8.79728198051452636719e-01) (2, -2.66948163509368896484e-01) (0, -9.58655476570129394531e-01) (1, 9.17329728603363037109e-01) (2, -9.33579444885253906250e-01) (0, -9.12329196929931640625e-01) (1, 8.96883606910705566406e-01) (2, -9.35023903846740722656e-01) (0, 4.93296645581722259521e-02) (1, 8.16025972366333007812e-01) (2, 2.56285332143306732178e-02) (0, 9.92262601852416992188e-01) (1, 9.75135028362274169922e-01) (2, 9.80763375759124755859e-01) (0, 8.28850090503692626953e-01) (1, 9.19420480728149414062e-01) (2, 9.88881111145019531250e-01) (0, 2.69148014485836029053e-02) (1, 8.81758809089660644531e-01) (2, 1.96825079619884490967e-02) (0, 8.89144599437713623047e-01) (1, 8.06545197963714599609e-01) (2, 8.96106421947479248047e-01) (0, -8.00377488136291503906e-01) (1, 8.97408008575439453125e-01) (2, -9.72491860389709472656e-01) (0, 2.12975814938545227051e-02) (1, 9.61163163185119628906e-01) (2, 1.95830240845680236816e-02) (0, -9.08691048622131347656e-01) (1, 8.04803669452667236328e-01) (2, -9.33872997760772705078e-01) (0, 8.32424998283386230469e-01) (1, 8.39140295982360839844e-01) (2, 9.76448893547058105469e-01) (0, -8.94146561622619628906e-01) (1, 9.19803142547607421875e-01) (2, -9.05643820762634277344e-01) (0, 6.16137646138668060303e-02) (1, 8.64332854747772216797e-01) (2, 1.51821523904800415039e-02) (0, -9.15349781513214111328e-01) (1, 8.63603353500366210938e-01) (2, -9.00466978549957275391e-01) (0, -1.16666421294212341309e-01) (1, 8.99461388587951660156e-01) (2, -1.63126528263092041016e-01) (0, -3.60777437686920166016e-01) (1, 8.21576178073883056641e-01) (2, -3.14359843730926513672e-01) (0, 8.09850990772247314453e-02) (1, 9.17728662490844726562e-01) (2, 2.60732434689998626709e-02) (0, -9.13692712783813476562e-01) (1, 9.10343289375305175781e-01) (2, -9.67302978038787841797e-01) (0, 2.01879650354385375977e-01) (1, 8.84440898895263671875e-01) (2, 2.95940250158309936523e-01) (0, 3.69826443493366241455e-02) (1, 9.68741893768310546875e-01) (2, -2.95282416045665740967e-02) (0, -8.61690342426300048828e-01) (1, 8.08174848556518554688e-01) (2, -9.41172182559967041016e-01) (0, -3.80414538085460662842e-02) (1, 9.07020330429077148438e-01) (2, 2.58310064673423767090e-02) (0, -3.30931656062602996826e-02) (1, 8.63834142684936523438e-01) (2, 1.47717334330081939697e-02) (0, 1.72889828681945800781e-02) (1, 9.41476404666900634766e-01) (2, 2.53830067813396453857e-02) (0, -3.01859043538570404053e-02) (1, 8.06890010833740234375e-01) (2, -8.14773514866828918457e-03) (0, -9.69024479389190673828e-01) (1, 8.68192613124847412109e-01) (2, -9.37355756759643554688e-01) (0, -2.11122147738933563232e-02) (1, 8.44377696514129638672e-01) (2, 2.75728926062583923340e-02) (0, 1.77610255777835845947e-02) (1, 9.23677086830139160156e-01) (2, 6.25240802764892578125e-02) (0, -7.41498172283172607422e-02) (1, 8.23476731777191162109e-01) (2, 3.63728478550910949707e-02) (0, 1.74590438604354858398e-01) (1, 8.95659387111663818359e-01) (2, 2.67002701759338378906e-01) (0, 8.71174275875091552734e-01) (1, 8.26961159706115722656e-01) (2, 9.73097443580627441406e-01) (0, -5.20778968930244445801e-02) (1, 9.41719651222229003906e-01) (2, -8.79464000463485717773e-02) (0, 9.01625216007232666016e-01) (1, 9.43826496601104736328e-01) (2, 9.57967758178710937500e-01) (0, 6.34048432111740112305e-02) (1, 8.56315493583679199219e-01) (2, 1.82599574327468872070e-02) (0, -3.42892169952392578125e-01) (1, 8.61329615116119384766e-01) (2, -2.94722169637680053711e-01) (0, -8.86752009391784667969e-01) (1, 8.85297238826751708984e-01) (2, -9.90433752536773681641e-01) (0, 1.26676455140113830566e-01) (1, 8.16985011100769042969e-01) (2, 1.87439359724521636963e-02) (0, 9.35241401195526123047e-01) (1, 8.69946062564849853516e-01) (2, 9.77621018886566162109e-01) (0, -1.42106592655181884766e-01) (1, 9.48596239089965820312e-01) (2, -1.66966482996940612793e-01) (0, 8.22138369083404541016e-01) (1, 8.21106612682342529297e-01) (2, 9.10772919654846191406e-01) (0, -2.28011101484298706055e-01) (1, 8.99288773536682128906e-01) (2, -2.70330190658569335938e-01) (0, -2.47905731201171875000e-01) (1, 8.29290926456451416016e-01) (2, -3.21602612733840942383e-01) (0, 3.31079401075839996338e-02) (1, 9.37924027442932128906e-01) (2, 1.61118395626544952393e-02) (0, -6.19164183735847473145e-02) (1, 8.96528840065002441406e-01) (2, 1.94352529942989349365e-02) (0, 2.48823583126068115234e-01) (1, 9.75716710090637207031e-01) (2, 2.85052806138992309570e-01) (0, -9.18890714645385742188e-01) (1, 8.81956815719604492188e-01) (2, -9.17714238166809082031e-01) (0, -9.16332364082336425781e-01) (1, 8.43833267688751220703e-01) (2, -8.93721342086791992188e-01) (0, 9.23595786094665527344e-01) (1, 9.86082613468170166016e-01) (2, 9.69216823577880859375e-01) (0, 9.08224701881408691406e-01) (1, 8.26056063175201416016e-01) (2, 9.24820899963378906250e-01) (0, 9.23338234424591064453e-01) (1, 8.55202317237854003906e-01) (2, 9.52935457229614257812e-01) (0, -9.44865167140960693359e-01) (1, 8.49271237850189208984e-01) (2, -9.26752030849456787109e-01) (0, 9.92868900299072265625e-01) (1, 8.23445558547973632812e-01) (2, 8.95530939102172851562e-01) (0, 6.51541948318481445312e-02) (1, 8.91753494739532470703e-01) (2, 1.22707821428775787354e-02) (0, 5.64660541713237762451e-02) (1, 9.25037086009979248047e-01) (2, 5.58075271546840667725e-02) (0, -3.55778723955154418945e-01) (1, 8.71780633926391601562e-01) (2, -2.88347870111465454102e-01) (0, 1.40740759670734405518e-02) (1, 9.45882022380828857422e-01) (2, -1.25031284987926483154e-02) (0, -8.68440151214599609375e-01) (1, 8.22541773319244384766e-01) (2, -9.19454038143157958984e-01) (0, -9.69169378280639648438e-01) (1, 9.53145444393157958984e-01) (2, -9.26363527774810791016e-01) (0, -3.51525582373142242432e-02) (1, 8.68378102779388427734e-01) (2, 6.44924789667129516602e-02) (0, 9.24868345260620117188e-01) (1, 7.98724234104156494141e-01) (2, 9.54894781112670898438e-01) (0, 5.66196478903293609619e-02) (1, 8.46851229667663574219e-01) (2, -1.70181728899478912354e-02) (0, -2.40203216671943664551e-02) (1, 8.46728026866912841797e-01) (2, -1.33444741368293762207e-01) (0, -3.61481457948684692383e-01) (1, 9.47082221508026123047e-01) (2, -2.74683356285095214844e-01) (0, -8.84922742843627929688e-01) (1, 8.98748278617858886719e-01) (2, -9.13550436496734619141e-01) (0, 8.52068960666656494141e-01) (1, 9.65049564838409423828e-01) (2, 9.51222300529479980469e-01) (0, 9.76090282201766967773e-02) (1, 8.14323663711547851562e-01) (2, 1.59201249480247497559e-02) (0, 8.08498024940490722656e-01) (1, 9.38875615596771240234e-01) (2, 9.33661937713623046875e-01) (0, -6.15604966878890991211e-03) (1, 9.62698340415954589844e-01) (2, 5.62319904565811157227e-03) (0, 2.57752537727355957031e-01) (1, 9.62745785713195800781e-01) (2, 2.78289228677749633789e-01) (0, 1.57445013523101806641e-01) (1, 8.94622087478637695312e-01) (2, 2.84021407365798950195e-01) (0, -1.79323293268680572510e-02) (1, 9.86441731452941894531e-01) (2, 6.00475817918777465820e-04) (0, -9.57542598247528076172e-01) (1, 9.44501399993896484375e-01) (2, -9.03455734252929687500e-01) (0, -9.79952365159988403320e-02) (1, 8.05100023746490478516e-01) (2, -1.38453528285026550293e-01) (0, 8.24473559856414794922e-01) (1, 9.13169384002685546875e-01) (2, 9.42374765872955322266e-01) (0, 9.03915226459503173828e-01) (1, 9.72246229648590087891e-01) (2, 9.14432287216186523438e-01) (0, 8.62145483493804931641e-01) (1, 9.65055286884307861328e-01) (2, 9.35763835906982421875e-01) (0, -8.12718629837036132812e-01) (1, 9.80561196804046630859e-01) (2, -9.04336869716644287109e-01) (0, -8.72048795223236083984e-01) (1, 8.69605123996734619141e-01) (2, -9.34630632400512695312e-01) (0, -1.60313516855239868164e-01) (1, 8.25277626514434814453e-01) (2, -1.53964847326278686523e-01) (0, 9.90967810153961181641e-01) (1, 8.80642652511596679688e-01) (2, 9.22737240791320800781e-01) (0, 9.72909152507781982422e-01) (1, 8.97910296916961669922e-01) (2, 9.16186869144439697266e-01) (0, -1.94824524223804473877e-02) (1, 9.33359801769256591797e-01) (2, 3.95041145384311676025e-02) (0, -8.87738168239593505859e-01) (1, 8.17444622516632080078e-01) (2, -9.06180083751678466797e-01) (0, 1.13680437207221984863e-01) (1, 8.48926067352294921875e-01) (2, -2.82107330858707427979e-02) (0, 2.00343132019042968750e-01) (1, 9.59849178791046142578e-01) (2, 2.88323432207107543945e-01) (0, -7.54967257380485534668e-02) (1, 8.29002559185028076172e-01) (2, 6.31065815687179565430e-02) (0, 9.55467104911804199219e-01) (1, 8.09276044368743896484e-01) (2, 9.38867747783660888672e-01) (0, 1.59302093088626861572e-02) (1, 9.30219352245330810547e-01) (2, -1.27112977206707000732e-02) (0, -7.25883245468139648438e-02) (1, 9.51985836029052734375e-01) (2, -1.27305775880813598633e-01) (0, 4.24068681895732879639e-02) (1, 9.49961602687835693359e-01) (2, 4.72247563302516937256e-02) (0, -9.25640046596527099609e-01) (1, 9.29878652095794677734e-01) (2, -9.45649147033691406250e-01) (0, 2.92626827955245971680e-01) (1, 9.45596218109130859375e-01) (2, 2.89790689945220947266e-01) (0, 3.00509221851825714111e-02) (1, 8.50850164890289306641e-01) (2, -2.30368636548519134521e-02) (0, -8.40929150581359863281e-01) (1, 7.99730598926544189453e-01) (2, -9.24894988536834716797e-01) (0, 1.23852238059043884277e-01) (1, 8.97993683815002441406e-01) (2, -2.45790928602218627930e-04) (0, -3.67843881249427795410e-02) (1, 9.17696952819824218750e-01) (2, -1.11115336418151855469e-01) (0, 6.84022158384323120117e-02) (1, 8.80171954631805419922e-01) (2, 5.20486272871494293213e-02) (0, -1.32602125406265258789e-01) (1, 9.31302189826965332031e-01) (2, -1.57604128122329711914e-01) (0, 8.64958703517913818359e-01) (1, 8.40793907642364501953e-01) (2, 9.76461768150329589844e-01) (0, 9.19732928276062011719e-01) (1, 9.78400707244873046875e-01) (2, 9.33431267738342285156e-01) (0, -9.23826515674591064453e-01) (1, 8.45752775669097900391e-01) (2, -9.15666401386260986328e-01) (0, 8.13085585832595825195e-02) (1, 8.36299598217010498047e-01) (2, -5.27016445994377136230e-03) (0, -8.88772904872894287109e-01) (1, 9.01550531387329101562e-01) (2, -9.05204176902770996094e-01) (0, -6.56976550817489624023e-02) (1, 8.53613495826721191406e-01) (2, -8.75536352396011352539e-02) (0, 9.77471530437469482422e-01) (1, 8.12665700912475585938e-01) (2, 9.92520093917846679688e-01) (0, 8.12425792217254638672e-01) (1, 9.57961320877075195312e-01) (2, 9.17224943637847900391e-01) (0, -9.02593731880187988281e-01) (1, 8.61563563346862792969e-01) (2, -9.81579422950744628906e-01) (0, 9.70639050006866455078e-01) (1, 9.11041438579559326172e-01) (2, 9.42714869976043701172e-01) (0, 7.95114994049072265625e-01) (1, 9.83008027076721191406e-01) (2, 9.90516602993011474609e-01) (0, 9.78584647178649902344e-01) (1, 9.09748852252960205078e-01) (2, 9.75925266742706298828e-01) (0, -8.66960406303405761719e-01) (1, 9.78914499282836914062e-01) (2, -9.57298219203948974609e-01) (0, -3.18425856530666351318e-02) (1, 8.95423054695129394531e-01) (2, 4.38013561069965362549e-02) (0, 8.26279342174530029297e-01) (1, 7.99642264842987060547e-01) (2, 9.80551898479461669922e-01) (0, 8.58751684427261352539e-02) (1, 9.16024625301361083984e-01) (2, 1.29811502993106842041e-02) (0, -9.77390527725219726562e-01) (1, 9.00504112243652343750e-01) (2, -9.25137341022491455078e-01) (0, -9.77862596511840820312e-01) (1, 9.19937789440155029297e-01) (2, -9.60168123245239257812e-01) (0, -2.82717645168304443359e-01) (1, 8.10336112976074218750e-01) (2, -3.20684641599655151367e-01) (0, -8.42217028141021728516e-01) (1, 9.87983107566833496094e-01) (2, -9.73547339439392089844e-01) (0, 6.52978420257568359375e-02) (1, 9.90105986595153808594e-01) (2, -2.57393382489681243896e-02) (0, 8.91014516353607177734e-01) (1, 9.75698530673980712891e-01) (2, 9.19209539890289306641e-01) (0, -1.42444148659706115723e-02) (1, 9.01730239391326904297e-01) (2, 1.69398337602615356445e-02) (0, 8.14494490623474121094e-02) (1, 9.05087649822235107422e-01) (2, -2.06292234361171722412e-02) (0, 1.60450801253318786621e-01) (1, 9.38374936580657958984e-01) (2, -1.39790512621402740479e-02) (0, -2.38869428634643554688e-01) (1, 8.59450101852416992188e-01) (2, -2.77826547622680664062e-01) (0, -9.61600363254547119141e-01) (1, 8.75051617622375488281e-01) (2, -9.41226601600646972656e-01) (0, 8.92238557338714599609e-01) (1, 8.90181183815002441406e-01) (2, 9.71703231334686279297e-01) (0, 9.25062537193298339844e-01) (1, 8.29543530941009521484e-01) (2, 9.89047288894653320312e-01) (0, 8.26457917690277099609e-01) (1, 9.80318605899810791016e-01) (2, 9.84038293361663818359e-01) (0, -9.98894572257995605469e-02) (1, 8.80816519260406494141e-01) (2, 3.53600755333900451660e-02) (0, 8.55363309383392333984e-01) (1, 9.78838860988616943359e-01) (2, 9.63858604431152343750e-01) (0, 1.53388664126396179199e-01) (1, 8.59794497489929199219e-01) (2, 4.44046594202518463135e-02) (0, -5.20715080201625823975e-02) (1, 9.76443886756896972656e-01) (2, 3.89002040028572082520e-02) (0, 2.00992785394191741943e-02) (1, 9.72094714641571044922e-01) (2, 4.18830327689647674561e-02) (0, 1.01320251822471618652e-01) (1, 9.55305278301239013672e-01) (2, -3.16589884459972381592e-02) (0, 4.55737151205539703369e-02) (1, 9.86697018146514892578e-01) (2, 5.04005290567874908447e-02) (0, -1.06660813093185424805e-01) (1, 8.85943531990051269531e-01) (2, -5.64104020595550537109e-02) (0, 7.60503411293029785156e-02) (1, 8.18013966083526611328e-01) (2, -1.58589668571949005127e-02) (0, -8.85686576366424560547e-01) (1, 8.51479768753051757812e-01) (2, -9.86324548721313476562e-01) (0, 6.31517022848129272461e-02) (1, 9.04390335083007812500e-01) (2, 5.92919476330280303955e-02) (0, -9.06480312347412109375e-01) (1, 9.66761529445648193359e-01) (2, -9.12653386592864990234e-01) (0, 8.50370407104492187500e-01) (1, 9.55350220203399658203e-01) (2, 9.40133213996887207031e-01) (0, -2.85097062587738037109e-01) (1, 8.56078743934631347656e-01) (2, -2.91487127542495727539e-01) (0, -2.93396860361099243164e-01) (1, 9.71378028392791748047e-01) (2, -3.12384486198425292969e-01) (0, 3.05661894381046295166e-02) (1, 9.07898247241973876953e-01) (2, 3.68087477982044219971e-02) (0, 3.41072119772434234619e-02) (1, 9.88671958446502685547e-01) (2, 3.05136926472187042236e-02) (0, 9.47899818420410156250e-01) (1, 9.21211183071136474609e-01) (2, 9.51657235622406005859e-01) (0, 9.30689454078674316406e-01) (1, 8.32461535930633544922e-01) (2, 9.76679086685180664062e-01) (0, 1.21838375926017761230e-01) (1, 9.39767003059387207031e-01) (2, 6.97464123368263244629e-03) (0, 9.56698060035705566406e-01) (1, 8.38118731975555419922e-01) (2, 9.46564972400665283203e-01) (0, 8.51189970970153808594e-01) (1, 9.24630522727966308594e-01) (2, 9.20334458351135253906e-01) (0, -4.35434058308601379395e-02) (1, 9.82008814811706542969e-01) (2, -9.23795551061630249023e-02) (0, -3.36402326822280883789e-01) (1, 9.18991744518280029297e-01) (2, -2.69292920827865600586e-01) (0, 8.09262692928314208984e-01) (1, 8.47674965858459472656e-01) (2, 9.24165129661560058594e-01) (0, -8.67025971412658691406e-01) (1, 9.13441121578216552734e-01) (2, -9.46912944316864013672e-01) (0, -7.95017182826995849609e-01) (1, 9.82748329639434814453e-01) (2, -9.51233088970184326172e-01) (0, 8.56680691242218017578e-01) (1, 9.37656104564666748047e-01) (2, 9.62970197200775146484e-01) (0, -1.28462947905063629150e-02) (1, 8.75353455543518066406e-01) (2, -2.57524736225605010986e-02) (0, 7.99032807350158691406e-01) (1, 8.32391798496246337891e-01) (2, 9.49214577674865722656e-01) (0, 1.30153186619281768799e-02) (1, 7.96097755432128906250e-01) (2, -3.38508896529674530029e-02) (0, -4.20291811227798461914e-01) (1, 8.54295670986175537109e-01) (2, -2.89092481136322021484e-01) (0, 3.39305363595485687256e-02) (1, 9.92832243442535400391e-01) (2, 2.68042646348476409912e-02) (0, -1.63689963519573211670e-02) (1, 8.78509998321533203125e-01) (2, 1.28039307892322540283e-02) (0, 7.64181017875671386719e-02) (1, 8.94780576229095458984e-01) (2, 7.48677551746368408203e-03) (0, 6.75911009311676025391e-02) (1, 8.20746719837188720703e-01) (2, -1.20641849935054779053e-02) (0, -3.32097485661506652832e-02) (1, 8.18721652030944824219e-01) (2, -1.69187963008880615234e-01) (0, -2.31450736522674560547e-01) (1, 8.82410228252410888672e-01) (2, -2.64523953199386596680e-01) (0, 1.25407442450523376465e-01) (1, 9.04763936996459960938e-01) (2, 4.71739843487739562988e-03) (0, -8.22937130928039550781e-01) (1, 9.10804629325866699219e-01) (2, -9.13674950599670410156e-01) (0, -8.66714656352996826172e-01) (1, 9.59019899368286132812e-01) (2, -9.10569310188293457031e-01) (0, 9.20618653297424316406e-01) (1, 9.60808098316192626953e-01) (2, 9.36718404293060302734e-01) (0, 8.53606164455413818359e-01) (1, 8.89938652515411376953e-01) (2, 9.36558604240417480469e-01) (0, -8.10373783111572265625e-01) (1, 9.08769667148590087891e-01) (2, -9.63907718658447265625e-01) (0, 8.23614358901977539062e-01) (1, 8.80387783050537109375e-01) (2, 9.23864901065826416016e-01) (0, 9.26301121711730957031e-01) (1, 9.83178913593292236328e-01) (2, 9.51619565486907958984e-01) (0, 9.49436962604522705078e-01) (1, 9.32049155235290527344e-01) (2, 9.77349102497100830078e-01) (3, 2.71416962146759033203e-01) (4, 9.22678470611572265625e-01) (5, -9.19216990470886230469e-01) (6, 9.19885098934173583984e-01) (7, -9.02698278427124023438e-01) (8, 2.87626951932907104492e-01) (9, 2.68890410661697387695e-01) (10, 2.51487530767917633057e-02) (11, -3.18720579147338867188e-01) (12, 1.09275169670581817627e-02) (13, 3.38261798024177551270e-02) (14, -9.23604846000671386719e-01) (15, -2.93529719114303588867e-01) (16, -3.07827323675155639648e-01) (17, -9.55788791179656982422e-01) (18, 3.70766259729862213135e-02) (19, 9.67858850955963134766e-01) (20, 9.27141964435577392578e-01) (21, -1.93568877875804901123e-02) (22, 9.50477182865142822266e-01) (23, -9.43064630031585693359e-01) (24, -1.37152552604675292969e-01) (25, 3.53073552250862121582e-02) (26, 4.21231351792812347412e-02) (27, 2.77880340814590454102e-01) (28, 9.14408504962921142578e-01) (29, 9.20502007007598876953e-01) (30, 3.92277650535106658936e-02) (31, -9.15130853652954101562e-01) (32, -9.26425099372863769531e-01) (33, 2.35847495496273040771e-02) (34, -9.45793926715850830078e-01) (35, 9.89245474338531494141e-01) (36, 3.97598519921302795410e-02) (37, 9.67083275318145751953e-01) (38, -9.06444907188415527344e-01) (39, 9.71098899841308593750e-01) (40, 4.57015447318553924561e-02) (41, 9.39888000488281250000e-01) (42, 4.62662316858768463135e-02) (43, 2.89109110832214355469e-01) (44, 3.83220724761486053467e-02) (45, 9.43845570087432861328e-01) (46, -3.06500643491744995117e-01) (47, 1.25747807323932647705e-02) (48, 9.81048882007598876953e-01) (49, 3.50560024380683898926e-02) (50, -1.25584416091442108154e-02) (51, 2.70066820085048675537e-02) (52, -3.15008722245693206787e-02) (53, 9.73118722438812255859e-01) (54, 1.93341299891471862793e-02) (55, -1.33453428745269775391e-01) (56, 1.54340192675590515137e-02) (57, -3.12622755765914916992e-01) (58, -9.68565225601196289062e-01) (59, -9.24296081066131591797e-02) (60, -9.56024885177612304688e-01) (61, 6.36546462774276733398e-02) (62, 2.69591689109802246094e-01) (63, 8.96526277065277099609e-01) (64, 4.24394048750400543213e-02) (65, -9.78282272815704345703e-01) (66, 6.45875632762908935547e-02) (67, -9.22792851924896240234e-01) (68, 2.90881007909774780273e-01) (69, 2.88414746522903442383e-01) (70, 1.31060518324375152588e-02) (71, 3.45025472342967987061e-02) (72, -2.88849383592605590820e-01) (73, 9.22764360904693603516e-01) (74, 9.09723699092864990234e-01) (75, -9.26239371299743652344e-01) (76, -9.12366330623626708984e-01) (77, -9.60681080818176269531e-01) (78, 9.07519638538360595703e-01) (79, -9.24309551715850830078e-01) (80, -1.50329954922199249268e-02) (81, 4.19690720736980438232e-02) (82, 2.92969286441802978516e-01) (83, -1.13338641822338104248e-02) (84, 9.10287857055664062500e-01) (85, 9.56015467643737792969e-01) (86, -1.09587296843528747559e-01) (87, -9.07462358474731445312e-01) (88, 3.72806377708911895752e-02) (89, 6.17196299135684967041e-02) (90, 2.77260184288024902344e-01) (91, 9.02439951896667480469e-01) (92, -9.37217831611633300781e-01) (93, 4.74918149411678314209e-02) (94, -9.80010092258453369141e-01) (95, 3.82136814296245574951e-02) (96, -2.64678388833999633789e-01) (97, -3.09310436248779296875e-01) (98, -3.15870605409145355225e-02) (99, 9.39194738864898681641e-01) (100, 6.39043301343917846680e-02) (101, -9.41073119640350341797e-01) (102, -9.17086899280548095703e-01) (103, -9.60657119750976562500e-01) (104, 9.74683344364166259766e-01) (105, 9.85628902912139892578e-01) (106, 6.38877153396606445312e-02) (107, -9.30675029754638671875e-01) (108, -9.68044281005859375000e-01) (109, -2.15847678482532501221e-02) (110, 9.23991739749908447266e-01) (111, 9.91480425000190734863e-03) (112, -2.71295726299285888672e-01) (113, 2.66888700425624847412e-02) (114, -9.24011170864105224609e-01) (115, 3.28800417482852935791e-02) (116, 4.97122444212436676025e-02) (117, 4.62736897170543670654e-02) (118, 9.46601867675781250000e-01) (119, -2.64687150716781616211e-01) (120, 3.19330766797065734863e-03) (121, 9.21782016754150390625e-01) (122, 3.16407121717929840088e-02) (123, 5.89675940573215484619e-02) (124, -1.10598251223564147949e-01) (125, 4.46227528154850006104e-02) (126, -9.65410828590393066406e-01) (127, -9.64108705520629882812e-01) (128, 9.85584437847137451172e-01) (129, -4.00577858090400695801e-03) (130, 9.68078136444091796875e-01) (131, -9.03833359479904174805e-02) (132, -9.09878909587860107422e-01) (133, -9.42000865936279296875e-01) (134, 9.17023777961730957031e-01) (135, -9.28187608718872070312e-01) (136, -9.49364066123962402344e-01) (137, -9.69872713088989257812e-01) (138, 9.20113623142242431641e-01) (139, 3.33758331835269927979e-02) (140, -9.56257462501525878906e-01) (141, 2.29211486876010894775e-02) (142, 9.06682729721069335938e-01) (143, 9.80511009693145751953e-01) (144, 2.82090067863464355469e-01) (145, 9.75663721561431884766e-01) (146, 2.03989632427692413330e-02) (147, -9.28069829940795898438e-01) (148, 2.89452783763408660889e-02) (149, -2.59912423789501190186e-02) (150, -1.28848440945148468018e-02) (151, 2.64618605375289916992e-01) (152, 9.30990815162658691406e-01) (153, -9.03836190700531005859e-01) (154, -9.36285912990570068359e-01) (155, -9.83511626720428466797e-01) (156, 1.61786302924156188965e-02) (157, -9.08704638481140136719e-01) (158, -1.43716126680374145508e-01) (159, 8.77097994089126586914e-03) (160, 2.02816836535930633545e-02) (161, -2.17500589787960052490e-02) (162, -1.28812357783317565918e-01) (163, 4.57949116826057434082e-02) (164, 2.92411781847476959229e-02) (165, 9.70291435718536376953e-01) (166, -1.18680641055107116699e-01) (167, 9.01061296463012695312e-01) (168, -9.92573380470275878906e-01) (169, 2.92600959539413452148e-01) (170, 2.78725087642669677734e-01) (171, 1.95330753922462463379e-03) (172, 1.34420730173587799072e-02) (173, -9.02656376361846923828e-01) (174, -9.68319892883300781250e-01) (175, -6.54788687825202941895e-03) (176, -9.19984817504882812500e-01) (177, -9.12720918655395507812e-01) (178, -8.85056406259536743164e-02) (179, 2.99232631921768188477e-01) (180, -9.03512120246887207031e-01) (181, 9.08881664276123046875e-01) (182, 9.52683269977569580078e-01) (183, -9.65513408184051513672e-01) (184, -3.01545746624469757080e-02) (185, -9.76594746112823486328e-01) (186, 1.75915285944938659668e-03) (187, 2.76104092597961425781e-01) (188, 5.48483431339263916016e-03) (189, 4.01230491697788238525e-02) (190, 4.03950475156307220459e-02) (191, -1.90334878861904144287e-02) (192, 5.35729862749576568604e-02) (193, 2.90942728519439697266e-01) (194, -2.04385854303836822510e-02) (195, 9.46206271648406982422e-01) (196, 9.59154129028320312500e-01) (197, -9.14831280708312988281e-01) (198, -9.31708693504333496094e-01) (199, 9.59572851657867431641e-01) (200, -9.24310386180877685547e-01) (201, -9.55063641071319580078e-01) (202, -9.89258050918579101562e-01) (203, -8.75668287277221679688e-01) 
